<?xml version="1.0"?>
<opencv_storage>
<stage8>
  <maxWeakCount>8</maxWeakCount>
  <stageThreshold>-1.7576568126678467e+00</stageThreshold>
  <weakClassifiers>
    <_>
      <internalNodes>
        0 -1 410123 2.9435576871037483e-02</internalNodes>
      <leafValues>
        -6.7774087190628052e-01 7.1380472183227539e-01</leafValues></_>
    <_>
      <internalNodes>
        0 -1 1193316 3.9012216031551361e-02</internalNodes>
      <leafValues>
        -5.7729959487915039e-01 3.2412758469581604e-01</leafValues></_>
    <_>
      <internalNodes>
        0 -1 24515 -8.0220960080623627e-03</internalNodes>
      <leafValues>
        2.3585593700408936e-01 -7.7077966928482056e-01</leafValues></_>
    <_>
      <internalNodes>
        0 -1 301892 5.8502119034528732e-02</internalNodes>
      <leafValues>
        -4.1693654656410217e-01 4.2301964759826660e-01</leafValues></_>
    <_>
      <internalNodes>
        0 -1 503898 2.0287502557039261e-02</internalNodes>
      <leafValues>
        -4.2260360717773438e-01 3.8784277439117432e-01</leafValues></_>
    <_>
      <internalNodes>
        0 -1 179816 -1.0544224642217159e-02</internalNodes>
      <leafValues>
        7.0543360710144043e-01 -2.5479879975318909e-01</leafValues></_>
    <_>
      <internalNodes>
        0 -1 299103 -4.3212778866291046e-02</internalNodes>
      <leafValues>
        6.2522071599960327e-01 -3.8580954074859619e-01</leafValues></_>
    <_>
      <internalNodes>
        0 -1 128632 -2.7797335386276245e-01</internalNodes>
      <leafValues>
        9.0068954229354858e-01 -1.6414564847946167e-01</leafValues></_></weakClassifiers></stage8>
</opencv_storage>
